//Numpy array shape [32, 5]
//Min -1.005246877670
//Max 0.849138259888
//Number of zeros 0

#ifndef W11_H_
#define W11_H_

#ifndef __SYNTHESIS__
model_default_t w11[160];
#else
model_default_t w11[160] = {-0.0873894319, -0.0609466434, 0.2779102921, -0.0208680015, -0.3865025342, -0.2879296839, -0.1297298074, 0.4505243301, 0.1050598845, -0.0255894568, -0.5092991590, -0.3325782120, -0.0712972507, 0.7062337995, -0.3963698447, 0.2589358091, -0.2523627281, -0.2307258099, -0.3266103268, -0.1574589163, 0.1663284600, 0.2830011249, 0.1726458967, -0.1048354581, -0.1059878320, -0.1484050900, -0.1476491541, 0.4358497858, 0.5534902811, -0.2783971727, -0.2511948049, -0.0563727692, -0.3485138118, 0.1928629726, -0.1701930761, 0.4977001846, -0.1957571656, -0.3778884709, -0.2646993399, 0.0451460741, 0.0878846571, 0.3496768475, -0.2374305874, -0.0833695605, 0.2340481430, 0.2253379375, 0.0037822546, 0.1650897861, -0.5685145855, 0.3844318688, 0.3660493195, -0.2558703125, -0.1059888750, 0.4147934616, -0.0974420384, 0.1467111707, 0.1156498864, -0.3360173702, -0.2214598507, 0.0688708350, -0.4011396766, -0.4315531254, -0.4252309501, -0.2427450567, 0.3544548154, 0.4323464334, -0.1670897156, -0.2289294451, -0.1909858286, -0.1960693598, 0.1585362852, 0.0999732167, -0.6251106858, 0.3524774611, 0.2862651348, 0.0124096991, -0.3045972586, -0.2957025468, 0.6246294379, -0.1109884605, 0.2024500668, 0.0939747766, -0.0821753144, -0.1944329888, -0.2935194373, -0.0012898222, -0.2205306590, 0.4155985415, 0.0170319881, -0.1868336946, -0.0060829036, 0.2978942692, 0.1808111221, -0.1650533229, -0.0922729671, -0.5131058693, 0.3292972147, -0.0508902743, -0.1368204653, -0.0490929671, 0.1445081532, 0.0226591788, -0.6323692799, -1.0052468777, 0.8491382599, -0.1700284779, -0.2070288807, 0.2328488231, 0.6592559218, -0.4199444056, 0.0875071660, -0.1463912576, 0.4844401181, -0.0925667211, -0.4723157883, 0.0000050036, -0.0000222997, 0.0000113457, -0.0000030702, -0.0000094749, -0.3283884823, -0.2324647605, 0.0366910435, 0.4733890593, 0.5560761690, -0.3457247317, 0.0068720682, -0.3509230912, 0.3851881325, 0.0869276747, -0.2758136988, -0.4250629246, -0.2252383232, 0.3545483649, 0.3683732450, -0.3262901306, -0.4834854305, -0.0407557711, 0.0431204997, -0.0253645498, 0.0004944811, -0.2473815233, 0.0267029591, -0.3632339835, -0.0590132028, -0.3779212534, -0.2480236590, 0.3474935591, 0.0456204452, 0.2143626958, 0.2872766256, -0.0146751665, -0.2811274230, -0.8198737502, 0.5825906396, -0.3526392877, -0.2890428603, 0.2790055573, -0.3948643208, 0.6131632328};
#endif

#endif
