//Numpy array shape [16, 64]
//Min -1.075130939484
//Max 0.843400359154
//Number of zeros 0

#ifndef W2_H_
#define W2_H_

#ifndef __SYNTHESIS__
model_default_t w2[1024];
#else
model_default_t w2[1024] = {-0.0795359015, -0.2814641297, 0.0455122814, 0.0271620005, -0.0210296493, 0.3242162466, 0.1600526422, 0.4387297332, 0.1321461201, -0.2942526340, 0.2390598655, 0.1366716176, 0.0111704366, -0.0199972149, -0.0201347377, 0.1711401343, 0.2767898738, 0.1945814341, 0.5054818392, -0.4208914042, -0.2603771091, -0.3555285335, 0.1076141298, 0.1704741567, 0.0468042493, -0.0606950484, 0.1156454459, -0.3822333813, -0.4218925536, 0.0904843882, -0.3253928721, -0.1071353108, -0.1290573925, -0.3437975049, -0.2378231287, 0.0211427324, -0.0178238805, 0.1955720931, 0.4068622291, -0.2223205268, -0.3249224722, 0.1284216195, -0.2268002331, -0.0412158668, 0.3283466697, -0.1520532668, -0.4723225534, -0.0115192635, 0.0001853440, 0.1453473270, 0.1342274994, -0.3679611683, 0.2880475819, -0.1954196095, 0.1724403650, -0.1549380720, -0.3707744181, -0.0646544769, -0.3425134420, -0.4263930917, 0.3524196446, 0.4316729307, -0.0004053239, 0.0058289827, 0.0162838604, 0.2381832153, 0.3020343781, -0.0493102297, -0.2181412876, 0.1915812939, 0.0167115312, 0.1117617786, 0.2197975963, 0.2591707110, -0.3228670657, -0.2031555921, -0.1602515131, -0.2451029867, 0.3301743567, -0.2661834955, 0.0723581314, 0.4179151058, 0.3840443492, 0.2842583954, 0.0455028564, -0.3099679053, 0.1536477953, -0.1931893378, 0.1366860271, -0.3125822544, 0.2647255957, 0.0082091549, -0.3049130738, 0.0907489210, 0.2928997278, 0.0780850053, 0.1062333062, -0.0000922238, 0.0407308303, -0.2831638455, 0.1954673678, 0.2089340389, -0.3999110162, 0.4518312812, -0.0383817703, 0.0028897594, -0.2801706195, 0.2874605060, 0.2622317374, -0.0092101665, -0.3458521664, -0.0009406519, -0.0750981495, -0.0112227900, 0.0005634074, -0.2388346195, 0.4014384449, -0.1003900468, 0.0162959266, 0.3757360876, -0.2255442739, -0.0545131527, -0.1078620628, 0.3196108937, -0.1829510927, 0.3487022221, 0.1842767000, 0.1617786735, 0.1368265599, -0.0154386433, -0.1858654171, 0.6045592427, 0.1677300930, -0.0406398736, 0.0606348403, -0.3009306788, 0.0153785534, -0.0001192888, -0.1023077294, -0.0030418243, -0.0048800572, 0.0005245656, 0.5845186114, -0.4213274419, -0.0241726376, -0.2236604542, -0.1943258196, -0.3236998916, -0.1574355215, 0.0018326695, -0.1910267472, 0.0068103462, -0.2059456557, -0.2689730525, -0.1343616843, 0.4464285970, -0.7016093135, -0.2131296247, 0.0287152641, 0.1673152745, -0.0707340986, -0.3082573116, -0.3599375784, -0.1059358865, 0.0750013590, 0.4419642985, 0.1259624809, 0.0027662413, 0.3928155005, 0.1120576188, 0.1657903194, 0.0013687297, -0.1109567732, 0.0105991578, -0.3626722991, 0.2677151561, -0.0706246719, 0.4126711488, 0.1249863207, 0.3143181801, 0.0358932279, 0.2204623222, -0.5694265366, 0.0450684428, 0.1284294575, 0.2495028228, 0.0972356275, 0.2571966350, 0.1385409534, -0.2873991728, 0.5575969815, 0.1684299260, -0.2113137245, -0.0313954093, -0.0166643430, -0.0312806740, 0.4137552977, 0.0466484837, -0.5862293243, -0.2466435432, -0.0156405233, -0.1860053390, -0.0004123368, -0.6327490211, -0.3836506903, 0.1364677101, -0.2942658365, -0.0325732157, 0.0380635597, -0.6685898900, -0.3854339719, -0.0595977157, -0.4986437559, -0.2197242975, -0.0026727957, -0.3560144305, 0.4890478551, -0.1133384556, -0.0433970727, 0.5494546294, -0.2645058632, 0.4967800975, -0.5456545353, -0.0002204725, 0.3360837102, -0.5831249356, 0.2509652972, -0.6302435994, 0.2405876815, 0.3882675767, 0.2083142102, -0.1789892018, 0.2144499123, 0.3415399790, -0.0693966523, 0.0379430354, -0.5481775999, 0.3755733967, -0.1608392596, 0.0643410608, -0.1183526516, 0.4063696265, 0.3480532467, -0.1468453407, 0.1187100857, -0.3528760970, -0.0388390869, 0.1554301679, 0.0328681841, 0.6958756447, -0.4752770960, 0.3448247910, 0.2869504094, -0.0094131920, 0.1652095318, -0.0542104319, 0.4312554598, 0.2011102140, 0.3316684663, 0.5441108346, 0.2903937399, -0.1875720024, -0.4188803434, -0.0102915522, 0.0317518897, 0.3565778434, -0.1900200695, 0.2314836830, -0.2537083626, -0.0257037282, 0.3757112622, -0.1463030726, -0.1060983017, -0.3198507726, -0.3655987978, 0.0771790892, 0.0452993326, 0.2059588283, 0.1500615776, 0.5381635427, -0.0649670884, -0.1637905985, -0.4857844412, -0.1592964083, -0.5577858686, -0.3442408442, -0.2005697638, -0.1808919609, 0.0754636303, -0.2942377925, -0.0417015404, -0.3029715121, 0.0174305886, 0.1744406968, 0.2172217965, 0.2418535054, 0.0032157039, -0.1903416365, 0.4705603123, 0.1159869358, 0.0641566887, 0.4284021556, -0.4408145547, -0.3723058105, -0.3009451330, 0.0323520899, 0.2100863457, 0.0513563827, 0.0804225877, 0.0970150232, -0.4864927232, 0.3016305864, -0.0008726553, 0.0179260839, -0.3443597853, 0.2171228677, 0.4678902626, -0.0743220523, 0.3001578450, 0.4816449285, -0.2849872112, -0.4699075520, 0.0599501282, 0.3904670775, 0.0132357050, -0.2660812438, -0.3790388107, 0.0786534175, -0.3744986355, -0.0567394234, -0.3545051813, -0.3110339344, -0.4033012092, 0.0007049930, 0.2074878812, 0.1337294877, 0.1159050241, -0.0471034609, 0.1470077485, 0.1061453819, -0.2123696059, 0.1144921780, -0.1607441455, 0.2818225622, 0.1572753042, -0.3990714550, -0.2612082660, 0.2586700618, -0.0085240155, 0.1238098294, -0.1599289477, -0.0248477198, -0.1066302061, -0.1380422860, -0.3523555100, -0.0728288963, -0.0001046207, 0.3951682746, -0.1483778805, 0.2432371825, 0.0429826677, -0.0519846156, 0.2944076359, 0.2776658237, -0.1742384881, 0.1441328973, 0.3088403046, -0.2421865463, -0.2923437059, 0.1621722430, 0.1873805523, 0.3360039592, -0.0510703214, -0.3300007284, -0.2150176764, -0.2510425150, 0.2635244429, -0.1754380912, -0.4480431378, 0.3651161492, 0.1734597683, -0.2496654540, 0.0856739432, -0.3226300478, 0.3596589863, -0.0771168470, -0.3948529065, -0.0890367180, 0.3209498227, 0.1855109781, -0.3132685721, 0.1381199807, -0.1162766889, -0.3275716901, 0.0001068560, 0.1520709395, -0.0326413326, -0.0001985061, 0.1948538572, -0.1324208975, 0.2403954268, 0.0150189316, 0.2316692472, 0.3363898695, -0.2120393515, -0.3187672496, -0.1866405010, 0.2278517187, 0.1282141805, 0.2502893209, -0.4131410122, -0.3277394176, -0.3556760848, -0.0454858392, -0.0758234113, 0.3791877627, -0.0005506728, -0.2616992891, 0.1032181755, -0.0899463892, 0.2519451082, 0.1277881563, -0.1098913327, -0.0135323573, -0.0258556139, 0.0527357347, -0.2767616510, -0.1087968722, -0.1506007612, -0.1207891628, 0.2593683302, 0.2461722493, -0.1219539419, 0.0000307273, 0.0446848422, -0.1813082695, -0.2419106513, 0.2666737437, -0.0629870445, -0.3963388205, -0.0548619702, -0.1197960228, 0.0091267256, 0.2707891464, 0.0769454539, 0.0406556167, -0.1951549202, 0.1980858743, -0.1862249970, 0.1667025685, 0.0994401500, -0.0416577235, -0.0541357063, -0.3753084540, 0.3975394964, 0.1333487779, -0.0337953009, -0.2119426429, -0.0000989456, -0.2316669971, -0.1783498526, 0.1773877740, -0.3374789059, 0.3656592667, -0.0166443773, 0.0619378909, -0.2852024734, 0.2145222723, -0.0096047092, -0.2285095006, 0.4101682901, -0.2328973562, 0.2893182635, -0.3345644474, -0.3804585338, 0.2059319764, 0.0948058143, 0.1230326965, 0.3435364366, 0.0118387733, 0.0685919002, -0.0162154939, 0.0001138966, 0.2700791955, -0.0403499790, -0.3731901944, -0.0963170305, -0.1084358916, 0.3159868121, -0.1374950111, 0.3410670757, -0.3064634800, -0.3198977411, -0.1225411594, 0.1998468488, 0.1440019906, -0.3484267592, -0.2098241597, 0.2136888206, -0.2890266478, -0.3718366325, 0.1018121615, 0.0129501661, 0.1860191822, 0.1023264006, -0.2482702881, -0.0795318484, -0.0113432612, -0.0897625759, -0.0519489944, -0.0003993251, -0.3474677503, 0.3568217456, 0.0024690116, -0.4659275413, -0.2099871039, 0.2176028341, -0.0992657393, 0.4520144463, 0.2098100632, -0.1754946709, 0.0613567531, -0.2583436072, -0.0051948768, 0.2734272480, 0.3435674310, 0.1042494029, 0.0675998107, 0.0012815851, -0.2252525389, -0.0478690080, -0.3508073986, 0.0197258126, 0.3857826293, 0.1709348410, -0.3377344012, -0.2875279784, -0.0489155874, 0.2007231712, -0.2678212523, -0.0712536275, 0.2158747613, 0.2197872549, -0.1783579439, -0.2104312181, 0.0823222920, 0.1268443614, 0.0000465433, -0.0077427416, -0.1629891098, 0.0037180947, -0.3438355625, -0.2622483969, 0.3967177868, -0.3329035640, 0.1116716042, 0.2026952654, -0.0004441142, 0.0286237877, 0.1815408617, -0.2401922494, -0.0031572038, 0.2233897150, -0.1069212779, -0.3158830404, -0.1583839357, 0.1133000925, 0.2079795599, -0.0358510241, 0.3179677725, -0.2218886465, 0.2726888061, -0.3008621633, -0.2282123417, 0.0187703706, -0.2737247050, 0.2250987589, 0.1579510421, -0.2656198442, 0.1736399382, -0.0059080110, 0.3617422581, -0.1480580419, 0.3850334883, -0.0774686709, -0.1297488213, -0.0002453233, -0.2353797108, 0.4313136041, -0.2731991410, -0.1972075999, -0.1091821492, 0.0084530516, 0.1956424713, 0.1032453775, 0.2904068530, 0.0866744518, 0.3365552723, -0.3493625224, 0.2188916206, -0.1835551709, -0.2352277189, 0.0132040298, -0.4049388468, 0.2549292147, -0.1819531620, -0.2845703959, -0.2213085741, -0.3872140944, -0.2251035124, 0.0005819480, -0.3202244043, 0.2773948908, 0.1364076138, 0.1596378535, 0.2567322552, 0.2785843313, -0.0113928216, 0.2806080580, -0.0006080818, 0.1969639361, -0.2659238279, 0.3492517769, 0.4362091422, 0.1132470593, 0.0317001827, 0.2117461711, -0.3595953286, -0.3584872186, 0.0537331216, -0.0576475300, 0.1309429556, -0.3570729792, 0.3756594658, -0.2729261220, -0.0013775581, -0.3423136473, 0.3057569861, -0.3120308816, 0.1186710149, -0.3083840907, -0.1489310861, 0.3162116408, -0.1749251336, -0.2833841145, 0.0485470220, 0.4475762248, -0.0938298032, -0.1872557700, -0.0398768447, 0.2040747404, -0.2705574036, 0.4180098772, -0.0598595403, -0.0383778811, -0.2751300633, -0.0002566178, -0.0068482687, 0.0281024240, 0.1373709738, 0.3771983385, -0.3971136510, -0.3841525018, 0.2765647769, -0.0936036780, 0.0320118777, -0.2231724709, -0.3161262274, -0.2363738120, 0.3491516411, -0.1984823197, -0.0698195249, 0.1440108567, -0.0646317750, 0.2578194141, -0.1089430377, 0.1204999760, -0.2733053565, 0.3979915679, 0.0001329378, -0.2720852792, -0.3189409673, -0.0426697060, -0.3498868942, -0.2902098596, 0.0005058007, -0.2564472556, 0.0909932107, 0.0243595131, -0.2221848369, 0.2679731548, 0.0034981668, 0.2059354037, 0.1414045542, 0.0283236802, 0.0611506552, -0.1591850668, 0.0646764338, -0.2774833739, 0.3323473632, -0.3658270240, 0.0891550481, -0.2731437981, 0.2570211589, -0.3204573691, 0.1916474253, 0.0762107372, -0.1137312651, 0.2946129739, -0.1179140061, -0.3312341571, -0.1037690863, 0.0869876295, -0.3292489648, 0.1297041178, -0.2203215957, 0.2902471721, 0.0776402056, -0.0271983501, -0.0264480859, 0.2486115843, -0.2669836879, 0.1539293081, -0.0317974091, -0.0865738690, 0.0000719101, -0.2190151364, -0.2510375679, -0.3563116789, 0.3655665815, -0.3350967765, -0.3239414096, 0.0274927355, -0.3165628910, 0.0325159132, 0.0093086790, -0.3798292279, -0.5189119577, -0.1154344827, 0.3406702876, -0.0692920089, -0.3420302570, -0.3414349854, -0.2707344294, 0.1361954361, -0.1976120919, -0.0472631231, -0.3396195769, -0.1046178490, 0.0370529182, 0.2511352003, -0.0140370242, -0.2640134394, 0.0956229717, 0.0002770635, -0.2050484121, -0.4251622558, -0.0026393090, -0.0836874843, -0.0494571179, 0.1567070931, -0.2836453319, -0.1215941906, 0.0776611418, -0.0198831037, 0.1658559144, 0.0136635331, 0.3892793357, 0.3361005783, -0.2154714614, 0.1505962014, 0.0544951893, 0.1462281346, 0.0624326840, -0.2738629878, 0.2771991491, -0.3403360546, -0.1898710877, 0.1670991033, -0.2443379760, 0.4234281480, 0.1454244107, -0.0488593951, -0.0200679414, 0.2502568960, -0.2053652406, 0.2206183970, -0.1484281570, -0.0972057283, 0.1753355414, -0.3289225996, -0.2194676101, -0.1010066420, -0.2036923915, -0.3380905092, -0.0014735085, -0.2271723151, -0.1300287843, -0.0034280617, 0.0188930593, -0.2469531298, -0.2795377374, 0.2962915897, 0.1568942964, -0.0602424555, 0.1422115415, -0.1341312975, 0.0007384785, -0.3049151897, 0.0008933570, 0.1807080805, -0.0768247917, 0.2269718349, -0.1803085506, 0.0354190357, 0.2598994672, -0.3933407664, 0.0127459001, 0.0441139527, -0.2711243331, -0.3244996071, -0.2742498517, 0.2403355092, 0.1295520365, -0.1934076846, -0.4356509149, 0.3376283348, -0.0001649393, -0.2720571458, 0.0010042827, 0.1011176556, -0.4117041528, -0.1233209670, -0.0054486659, -0.1857441217, -0.0618826933, 0.0974142551, 0.1073138267, -0.0663409531, -0.2888358533, -0.0426859856, 0.1934917122, 0.0508567356, 0.2114752233, 0.0003237361, 0.0003001453, -0.1449845433, -0.1477283537, 0.0010653308, 0.0000833298, -0.0667815283, 0.2772123516, -0.2610796392, 0.2864305973, 0.0130407270, 0.1125183031, 0.1294187158, -0.1303066909, 0.0357234813, 0.1862467378, 0.0435819067, -0.1518382877, 0.0604240559, 0.1609078348, 0.0400472544, -0.3599088788, 0.2514452040, -0.3367352188, -0.0028553423, 0.1877070516, 0.4225221276, 0.0588734299, -0.0092054866, -0.0058777947, -0.2129251808, -0.0001255701, 0.0430691577, -0.3027004898, -0.1096415669, -0.0134616429, 0.1097634286, 0.0000007493, -0.0519678034, 0.3466825187, 0.1806617975, 0.0588715337, -0.2178448141, -0.0182935838, -0.3662376404, 0.3637365997, 0.2776182592, 0.3411704898, -0.1565127969, 0.0001999665, -0.0058085946, 0.1314001679, 0.2999315560, 0.5781217813, 0.5568377972, -0.4326724708, -0.3328094184, -0.8208574653, -0.7590317130, -0.3836123943, -0.8718628287, 0.3513095975, 0.0000358466, 0.4578172565, 0.2211444676, 0.0191284847, 0.1527560800, -0.0133659039, 0.5708609819, 0.5455569625, 0.3369001448, 0.2463191301, -0.5531482100, -0.2241077125, -0.4948394597, 0.5275041461, 0.8434003592, -0.3105180562, 0.1663767695, -0.0000900314, -0.3000499606, 0.3022698760, -0.1404219270, -0.2196874470, -0.7529121041, -0.2705948949, 0.1634839475, -0.3001085520, -0.3995776176, 0.6730886102, -0.1972607523, -0.2464305758, -0.5106851459, 0.0037497433, 0.2140823901, 0.0000519979, -0.6523762941, -0.0238241218, 0.1908368915, -0.0055543841, 0.7573781610, 0.4724747539, 0.0291635785, 0.2525393367, -0.3637761474, -1.0751309395, 0.0086051151, -0.4395298958, 0.1453772038, 0.7263722420, -0.1922986805, -0.2987004817, -0.5277342200, -0.1400115341, -0.0133014722, 0.0723080859, -0.1618243307, -0.0005575153, 0.0616750866, -0.1327760667, -0.0499754697, 0.0302161723, 0.3540880084, -0.3068808019, -0.3514648080, -0.3498518765, -0.1814698130, -0.3580266535, 0.2049964219, 0.0011525187, -0.1843847036, -0.2825403512, -0.0364987850, 0.2639688849, 0.0625474975, 0.2742415965, -0.1321186870, -0.0041228635, 0.5040274262, 0.0601977706, 0.2500422895, -0.0384386517, 0.2766258717, 0.4019771814, 0.1927155256, 0.3603284061, -0.3821845651, -0.0157860443, 0.0037761885, -0.0007648891, -0.5108172297, -0.1689393818, 0.2094847858, 0.3638117909, 0.5557804704, 0.0124351904, 0.4762639999, -0.0847621635, -0.0806237087, 0.1394656897, 0.0358412601, 0.2400950938, 0.3339604139, -0.2471390367, -0.2296367735, -0.2878722548, -0.3554551303, 0.2778905034, 0.1214115471, -0.3059848249, 0.3715554774, 0.0013324029, -0.2359725535, -0.0106511358, 0.2229101658, 0.1364205331, -0.0149305388, -0.3795555234, 0.0030143475, 0.0232597068};
#endif

#endif
